{"x_mean": [1648.8614501953125, 0.2002781331539154, 0.20006906986236572, 0.19971174001693726], "x_std": [779.1730346679688, 0.21385851502418518, 0.2137862741947174, 0.2131643146276474], "mlp_weights.layers.0.weight": [[-0.882125735282898, 0.02416032738983631, -0.031013207510113716, -0.0022112326696515083], [-0.35250452160835266, 0.04901052266359329, 0.5302408337593079, -0.1325148642063141], [0.3850238025188446, 0.13813918828964233, -0.2549498379230499, 0.08537567406892776], [0.4166202247142792, -0.4964959919452667, 0.05047319829463959, -0.032153934240341187], [-0.06040634587407112, 0.35522639751434326, 0.06644659489393234, 0.034116990864276886], [0.21501755714416504, -0.02331141009926796, -0.4310096204280853, -0.09304211288690567], [-0.7083296179771423, 0.4810515344142914, -0.05037025734782219, 0.07752081006765366], [0.3403097093105316, -0.0266828965395689, 0.00429430091753602, 0.022919971495866776], [-0.10372316092252731, -0.883772075176239, 0.011208348907530308, 0.020773131400346756], [-0.7292112112045288, -0.5836892127990723, 0.2327256053686142, -0.265613853931427], [0.30513498187065125, -0.03112955205142498, -0.3988819420337677, 0.12797822058200836], [-0.40475088357925415, -0.45825856924057007, 0.25436800718307495, -0.2029637098312378], [-0.15760153532028198, 0.10221490263938904, 0.3328704833984375, -0.13185793161392212], [0.23540285229682922, -0.04066196084022522, -0.2992963492870331, -0.015947533771395683], [0.11287851631641388, -0.32848885655403137, -0.1315682977437973, -0.4394301474094391], [0.11926540732383728, 0.006236783228814602, -0.6126043796539307, 0.017244968563318253], [-0.1698961704969406, 0.10004816204309464, -0.965385377407074, -0.010804424062371254], [0.91865074634552, -0.004228719510138035, 0.06588059663772583, -0.048407744616270065], [0.11344971507787704, -0.09772958606481552, -0.1344461292028427, -0.28662991523742676], [0.6884575486183167, -0.022018656134605408, 0.007258488330990076, -0.028499452397227287], [0.003471693955361843, 0.3263095021247864, -0.010170811787247658, 0.0778929740190506], [0.9365110397338867, -0.507269024848938, -0.22644299268722534, 0.39228910207748413], [0.36589905619621277, 0.1328243762254715, -0.20502398908138275, 0.08147460967302322], [-0.1944972425699234, 0.21404138207435608, -0.5550769567489624, 0.11194495111703873], [0.18945200741291046, -0.025832749903202057, 0.04289267212152481, 0.2732914984226227], [0.26319554448127747, -1.040993571281433, 0.05211251229047775, 0.027992792427539825], [0.479941725730896, -0.06484808772802353, 0.040363553911447525, 0.030329294502735138], [-0.023016061633825302, 0.27154776453971863, 0.5404455065727234, 0.00804145261645317], [-0.1789773404598236, -0.4755929410457611, -0.24075646698474884, 0.5997928380966187], [1.0336188077926636, -0.09057250618934631, -0.22058066725730896, 0.41852399706840515], [0.09577242285013199, -0.040940068662166595, -0.663708508014679, -0.07998364418745041], [-0.015595020726323128, -0.5874547362327576, 0.38715940713882446, -0.00485329469665885]], "mlp_weights.layers.0.bias": [-1.235371470451355, -0.4719648063182831, -0.014311863109469414, 0.08983895927667618, 0.34911486506462097, -0.5850114822387695, -0.06984265893697739, 0.415836364030838, -0.8936952352523804, -0.10053727775812149, 0.4187575876712799, -0.617667019367218, 0.14361293613910675, 0.24393290281295776, -0.05583404377102852, -0.4749357998371124, -0.7239475250244141, -0.16747763752937317, -0.48244598507881165, 0.8664627075195312, -0.42817622423171997, -0.5220587849617004, -0.3877071440219879, -0.20865246653556824, 0.21429336071014404, -0.6831499338150024, 0.5143744945526123, 0.23771552741527557, -0.25311732292175293, -0.20268556475639343, -0.693681001663208, -0.0674133151769638], "mlp_weights.layers.2.weight": [[-0.0756101906299591, -0.13397134840488434, -0.08148834109306335, -0.12653888761997223, 0.12718863785266876, 0.05168842896819115, -0.10174357146024704, -0.15530383586883545, -0.18590395152568817, -0.026008032262325287, -0.027498042210936546, -0.16219882667064667, 0.0473383329808712, -0.027075855061411858, -0.07584729790687561, -0.04277923330664635, -0.081632599234581, -0.10200610011816025, 0.03853772580623627, -0.13915494084358215, -0.13576041162014008, 0.003154961857944727, -0.13773925602436066, -0.014206229709088802, -0.18073296546936035, -0.12747636437416077, -0.08763984590768814, -0.0096735255792737, 0.010024065151810646, -0.10867484658956528, 0.0433151014149189, -0.14898839592933655], [2.0866875648498535, 0.22925394773483276, 0.061213523149490356, 0.07433142513036728, -0.2218817174434662, 0.15582554042339325, 0.17487378418445587, 0.2702953815460205, 1.8757895231246948, 0.2544638216495514, 0.06692051142454147, -0.4728560149669647, -0.15591754019260406, 0.06165553629398346, 0.12005582451820374, 0.10344914346933365, 0.34362274408340454, 0.28040894865989685, -0.2521872818470001, 0.11940044909715652, -0.5578151345252991, -0.3068941831588745, 0.06224842742085457, -0.023852361366152763, -0.07848799973726273, 0.16572009027004242, 0.2318977564573288, -0.20555998384952545, 0.15351124107837677, 0.14014551043510437, 1.3472087383270264, 0.057534608989953995], [-0.10296546667814255, 0.05180277302861214, -0.050727225840091705, 0.04156617820262909, -0.19273307919502258, -0.10743876546621323, 0.04765446111559868, -0.0191617701202631, -0.10093283653259277, -0.059362854808568954, 0.0032045457046478987, -0.03909384459257126, -0.11819486320018768, -0.1335572600364685, -0.16246642172336578, -0.004031866788864136, 0.13044922053813934, 0.049573030322790146, 0.047886524349451065, -0.12315963208675385, 0.017728066071867943, 0.06434966623783112, -0.13906724750995636, -0.13157880306243896, -0.11093920469284058, -0.17174719274044037, -0.08938661962747574, 0.055238328874111176, -0.1692817360162735, -0.17310529947280884, -0.042731840163469315, -0.031168578192591667], [-0.03313568979501724, 0.0041627222672104836, -0.9081164002418518, 0.21661090850830078, -0.35581618547439575, 0.03505910933017731, -0.21989388763904572, -0.07816921174526215, 0.2018946260213852, 0.08973759412765503, 0.19057251513004303, -0.8112841844558716, 0.2626821994781494, 0.026420406997203827, 0.09691144526004791, -0.12339508533477783, 0.3625253736972809, -1.0577073097229004, -0.1665361076593399, -0.08381039649248123, -0.09746858477592468, 1.6558594703674316, -0.5466926097869873, -1.581542730331421, 0.09516581892967224, 0.45773446559906006, -0.1569405198097229, -0.45315924286842346, -1.595276117324829, -0.33348605036735535, -0.6782673597335815, -0.1009468212723732], [-0.21875187754631042, -0.3269961476325989, -0.05606511980295181, -0.32731521129608154, -0.14442092180252075, 0.011619248427450657, -0.27816951274871826, -0.18905510008335114, -0.12029028683900833, -0.23338399827480316, 0.03370025008916855, -0.1193583607673645, -0.21708253026008606, -0.017009269446134567, -0.18774621188640594, -0.08034991472959518, 0.11784724146127701, -0.10570718348026276, 0.11753536760807037, -0.19696854054927826, 0.06332045793533325, -0.02638680674135685, 0.040399324148893356, -0.004444784484803677, -0.00832320749759674, -0.20624394714832306, -0.20041881501674652, -0.13628244400024414, -0.1688079684972763, -0.032907165586948395, 0.030188076198101044, -0.1594136655330658], [0.006623210851103067, 0.021853404119610786, -0.17852920293807983, -0.09715956449508667, 0.016314491629600525, -0.04456249997019768, -0.08824615180492401, 0.06917395442724228, -0.0892152190208435, -0.03392728790640831, -0.13758055865764618, 0.11011397838592529, -0.10026621073484421, 0.008635098114609718, 0.05782076343894005, -0.17226336896419525, -0.04675714671611786, -0.059686265885829926, 0.055835772305727005, 0.07677268981933594, 0.026392756029963493, -0.10773392021656036, 0.010219882242381573, -0.021431053057312965, 0.0814061164855957, -0.04394478350877762, -0.15514430403709412, -0.14468924701213837, -0.13820914924144745, -0.140708327293396, -0.020459752529859543, -0.18261469900608063], [0.08282970637083054, -0.13421253859996796, -0.007782322820276022, -0.12064699083566666, -0.07825339585542679, -0.00881254393607378, 0.023362312465906143, -0.17054419219493866, -0.13205194473266602, -0.08512517809867859, -0.10774749517440796, 0.02207232266664505, -0.0703711211681366, -0.13632574677467346, -0.10232185572385788, -0.15234191715717316, 0.0629589706659317, 0.0030152678955346346, 0.12366220355033875, 2.219826819782611e-05, -0.09782040119171143, -0.1796989142894745, 0.03684410825371742, -0.15344834327697754, 0.05139316990971565, -0.09854155033826828, -0.1525483876466751, -0.15974052250385284, -0.06472378224134445, -0.013253909535706043, 0.001969369826838374, -0.011355578899383545], [-2.6568429470062256, 0.22314365208148956, -0.021547934040427208, 0.02023964934051037, 0.6682684421539307, -0.3481569290161133, 0.06716848164796829, -0.05492177978157997, -2.3949029445648193, 0.15014569461345673, 0.07598679512739182, -0.45343002676963806, 0.025166800245642662, 0.0765548050403595, 0.07296716421842575, 0.700993537902832, -0.1800919622182846, -0.06440522521734238, 1.2532578706741333, -0.12675799429416656, 0.033648908138275146, -0.1881781667470932, -0.5790193676948547, 0.020583467558026314, -0.21092574298381805, 0.2072111815214157, -0.2550147473812103, -0.26988959312438965, -0.010084215551614761, 0.1891491562128067, 1.335593342781067, 0.13017068803310394], [-0.08658324927091599, 0.005435663741081953, 0.036210380494594574, -0.0010848474921658635, -0.14474625885486603, 0.008059736341238022, 0.0115490248426795, -0.06973137706518173, -0.021103691309690475, -0.14271587133407593, -0.0017128534382209182, -0.0507880374789238, -0.05154705047607422, -0.047480784356594086, -0.16528728604316711, -0.01042759045958519, -0.1518399715423584, 0.04639237001538277, 0.07927422225475311, -0.20396128296852112, -0.025356436148285866, -0.23433661460876465, -0.052944477647542953, -0.06746114045381546, 0.012275458313524723, -0.2090090662240982, -0.2009812742471695, -0.03164419159293175, -0.03690934553742409, -0.10071045905351639, -0.18135997653007507, -0.16788114607334137], [-0.057478658854961395, 0.05263965576887131, 0.021468402817845345, 0.003689568256959319, -0.017395880073308945, -0.2074531465768814, -0.17453157901763916, -0.1470903754234314, -0.055707115679979324, -0.12140750139951706, -0.21024563908576965, -0.21224480867385864, 0.05692588910460472, -0.09530910104513168, 0.0421113520860672, -0.10476203262805939, -0.20026437938213348, 0.026933159679174423, -0.032434724271297455, -0.15406763553619385, -0.012784094549715519, -0.05273193493485451, -0.14012525975704193, -0.029744373634457588, -0.06735377758741379, -0.056839052587747574, -0.20455580949783325, 0.035424187779426575, 0.05850568413734436, 0.04337906092405319, 0.05588310956954956, -0.033668238669633865], [0.015750985592603683, 0.02106928825378418, 0.08281675726175308, -0.08326610922813416, -0.022497180849313736, -0.1459699273109436, 0.0023064599372446537, 0.028667530044913292, 0.002144615165889263, -0.09988552331924438, -0.17062950134277344, -0.08122769743204117, -0.04374736174941063, -0.05084498971700668, 0.03631480038166046, 0.017787639051675797, -0.18679594993591309, -0.1380431205034256, -0.057232581079006195, -0.013333182781934738, 0.047158900648355484, -0.003797554410994053, -0.08442233502864838, 0.04097305238246918, 0.007841012440621853, 0.0980648323893547, -0.12736240029335022, -0.10352102667093277, -0.17052339017391205, -0.07637515664100647, 0.02695290558040142, -0.1411280632019043], [0.004457096103578806, 0.009114060550928116, -0.04797319322824478, 0.008874358609318733, -0.03957286849617958, -0.10497870296239853, -0.08741495013237, -0.0741662085056305, -0.16632477939128876, -0.025320805609226227, -0.1796792447566986, -0.014830936677753925, 0.016084380447864532, 0.05030164495110512, -0.10177414119243622, -0.049488577991724014, -0.17105044424533844, 0.019321676343679428, 0.010779555886983871, -0.1737547665834427, -0.14610902965068817, -0.0377207025885582, 0.04005970060825348, -0.11741095781326294, 0.01081901602447033, -0.10134848952293396, -0.03957456350326538, 0.04762260988354683, -0.20910049974918365, -0.03064533695578575, 0.012352625839412212, -0.06239748373627663], [-0.2082587629556656, -0.06544151157140732, 0.03982216864824295, -0.03880256786942482, -0.16903899610042572, -0.02287837117910385, -0.12385420501232147, -0.0784522220492363, -0.07457101345062256, 0.028498588129878044, -0.004694140516221523, -0.032529063522815704, 0.034200239926576614, -0.14305509626865387, -0.13265283405780792, 0.04320528358221054, -0.20994819700717926, -0.13769839704036713, -0.20669975876808167, -0.19896206259727478, 0.011700829491019249, -0.0037392389494925737, -0.15047204494476318, 0.014161325991153717, -0.07802332937717438, -0.036182135343551636, 0.014593899250030518, -0.042363643646240234, -0.057164933532476425, -0.057645805180072784, -0.12400639057159424, -0.20250694453716278], [-0.008462309837341309, -0.08749280869960785, 0.012603633105754852, 0.05672983080148697, -0.12257008254528046, 0.01006988063454628, -0.15841923654079437, 0.03674101084470749, -0.12569807469844818, 0.008071341551840305, -0.13642609119415283, -0.043590348213911057, -0.18304114043712616, 0.013683397322893143, -0.1408841609954834, -0.06469041854143143, -0.05496019497513771, -0.03765688091516495, -0.07312393933534622, -0.07218626886606216, -0.045681338757276535, -0.006024893838912249, 0.08268740773200989, 0.013621206395328045, -0.0052362470887601376, -0.03901295363903046, 0.05709818750619888, 0.02485049143433571, -0.14043179154396057, -0.07725351303815842, -0.11309836804866791, -0.21060098707675934], [0.0758800208568573, 0.02216269262135029, -0.09385770559310913, 0.05659303441643715, 0.029353067278862, -0.03251165524125099, -0.17575286328792572, -0.0028772444929927588, 0.014717231504619122, -0.20150665938854218, 0.007810519076883793, -0.01755792833864689, -0.11107681691646576, -0.2131529599428177, -0.18239927291870117, -0.06927847117185593, -0.18598590791225433, 0.034013643860816956, -0.13705621659755707, -0.09319926798343658, -0.09730969369411469, -0.06628724932670593, 0.053945958614349365, -0.06477184593677521, -0.04322689026594162, -0.21065735816955566, -0.20254670083522797, -0.07643285393714905, -0.11150821298360825, -0.0021696295589208603, 0.049799058586359024, -0.11549866199493408], [-0.08326331526041031, -0.29266980290412903, 0.11682526767253876, 0.04518676549196243, 0.15137329697608948, -0.8734930157661438, 0.1269875168800354, 0.17715303599834442, 0.025362972170114517, -0.13237236440181732, 0.1869180053472519, -0.247812882065773, 0.1171673908829689, 0.20577317476272583, -0.17103643715381622, 0.3717074394226074, -0.28045299649238586, -0.3740684390068054, -0.06610448658466339, 0.09967894852161407, -0.8083900809288025, -0.31892552971839905, 0.045692529529333115, -0.11334619671106339, -0.3568664789199829, 0.2600054442882538, 0.059149399399757385, 0.07000364363193512, 0.17331910133361816, 0.05227230489253998, 1.486393928527832, 0.0901247039437294], [-0.22562731802463531, -0.15506146848201752, -0.14418990910053253, 0.04911959916353226, 0.013695128262043, -0.21447224915027618, -0.2198905348777771, -0.03391130641102791, -0.10661407560110092, 0.034218285232782364, -0.14693701267242432, -0.01992880180478096, 0.003676130436360836, -0.13918054103851318, 0.04721721261739731, 0.012867322191596031, -0.18129484355449677, -0.11415372043848038, 0.039726968854665756, 0.03491876646876335, 0.01169006060808897, 0.027481745928525925, 0.002898666076362133, 0.017396386712789536, 0.011495622806251049, -0.15719886124134064, -0.17407318949699402, -0.023893972858786583, 0.008310896344482899, 0.05068764090538025, 0.044292572885751724, 0.036854732781648636], [-0.06533093005418777, -0.14037367701530457, 0.07244135439395905, -0.1150151863694191, -0.1744924783706665, -0.02088920585811138, -0.19269946217536926, -0.0463869571685791, -0.02225339226424694, -0.14869867265224457, -0.1653776913881302, -0.09397978335618973, -0.023836759850382805, 0.07559815794229507, -0.1822977215051651, -0.047959934920072556, 0.025443116202950478, -0.1855299174785614, 0.09249148517847061, 0.006675160489976406, -0.08790722489356995, -0.09316349774599075, -0.060707975178956985, -0.15998195111751556, -0.13723409175872803, -0.12187692523002625, -0.050428055226802826, 0.023683032020926476, -0.08021429926156998, -0.0056816646829247475, -0.07348675280809402, -0.18604813516139984], [1.1902225017547607, -0.09393970668315887, 0.055298853665590286, 0.08946479111909866, -0.15648087859153748, -0.061628106981515884, 0.006918526720255613, 0.18765291571617126, 2.222921133041382, 0.12726156413555145, 0.061680831015110016, 0.0647495836019516, -0.01045070681720972, 0.1303541362285614, -0.20520149171352386, 0.30080515146255493, 0.3788585960865021, -0.06935067474842072, -0.6097407937049866, 0.35483336448669434, -0.43503475189208984, -0.18734528124332428, 0.06923693418502808, 0.2095845639705658, -0.22820450365543365, 0.09617426991462708, 0.17334064841270447, 0.0016897977329790592, 0.23962174355983734, 0.08691107481718063, 1.3625246286392212, -0.05740393325686455], [0.04177013412117958, -0.04814303293824196, 0.03332652151584625, -0.053770165890455246, -0.14201205968856812, 0.04745931923389435, -0.1638839840888977, -0.08043862879276276, -0.046855051070451736, -0.13868878781795502, -0.18495871126651764, -0.18463397026062012, 0.009059237316250801, -0.19714397192001343, -0.1838923841714859, -0.03661241754889488, -0.11636646836996078, 0.043539538979530334, -0.14476272463798523, 0.03879515081644058, 0.02348678559064865, -0.0014642112655565143, -0.0611000619828701, -0.09966195374727249, 0.014615354128181934, 0.0014690117677673697, -0.10021434724330902, 0.021124333143234253, -0.1677914708852768, 0.04208122938871384, -0.0012899503344669938, -0.007385003846138716], [-0.16017578542232513, -0.015519946813583374, -0.028880665078759193, -0.15068601071834564, -0.0880381315946579, -0.0345931276679039, -0.11820892989635468, -0.0375293530523777, -0.06442535668611526, -0.033167921006679535, -0.08877865970134735, -0.04362094774842262, -0.00261371280066669, 0.027031583711504936, -0.11896611005067825, -0.014489893801510334, -0.04519706219434738, -0.06162196397781372, -0.12776519358158112, -0.17358532547950745, -0.23159389197826385, -0.18472892045974731, -0.1776139885187149, -0.1867598295211792, -0.20058058202266693, -0.08036211878061295, -0.13267379999160767, 0.04014914482831955, -0.07611935585737228, 0.015466341748833656, 0.011320969089865685, 0.019977807998657227], [-0.2696341872215271, -0.1284850686788559, -0.08718658983707428, -0.014347503893077374, 0.05044582858681679, -0.19884252548217773, -0.05167040228843689, -0.10990843176841736, -0.12348639219999313, 0.0035483569372445345, 0.06287764012813568, -0.060477886348962784, -0.07794395834207535, -0.13987018167972565, 0.03194907680153847, -0.0053583900444209576, 0.0651615709066391, -0.17365218698978424, -0.1203540489077568, -0.0590825118124485, -0.2684040665626526, -0.1435653567314148, -0.18081986904144287, 0.0565812885761261, -0.14941607415676117, -0.05398274585604668, -0.1324346959590912, -0.08060668408870697, -0.2540549635887146, 0.07068955153226852, -0.0811448022723198, -0.1614922285079956], [0.5152451992034912, -0.20722949504852295, 0.010504776611924171, 0.12806780636310577, 0.04856244847178459, -0.6524273157119751, -0.04019111394882202, 0.22743403911590576, -0.3224112391471863, -0.219944030046463, 0.07705345004796982, 0.2376602590084076, -0.12241265922784805, 0.20658767223358154, -0.18772099912166595, -0.23259180784225464, -0.32986798882484436, -0.17900840938091278, -0.266116738319397, 0.1624792069196701, 0.04390794411301613, 0.16520120203495026, 0.176178976893425, -0.03184564784169197, 0.1629972606897354, -0.13775332272052765, 0.16537052392959595, 0.17777879536151886, -0.3051213324069977, -0.11963213980197906, 0.9924268126487732, -0.17214368283748627], [0.000757100060582161, -0.19209441542625427, 0.05983387306332588, 0.08381867408752441, 0.1692705750465393, -0.022933781147003174, -0.24223975837230682, 0.18766655027866364, 1.9396363496780396, 0.08405046910047531, 0.2194186896085739, 0.24464169144630432, 0.005535144358873367, 0.25359249114990234, 0.07127275317907333, 0.6719439625740051, 0.021531715989112854, 0.4281367063522339, -0.539122998714447, 0.4577496349811554, 0.0183869656175375, -0.24515976011753082, 0.37182292342185974, -0.09857123345136642, -0.16260281205177307, -0.19760435819625854, 0.0596640482544899, 0.17495515942573547, 0.20934219658374786, 0.5605561137199402, 1.3356730937957764, 0.10558824986219406], [-1.3399195671081543, -0.4178946018218994, 0.07956072688102722, 0.04248442128300667, 0.3693598806858063, 0.0017347505781799555, -0.20224888622760773, 0.20459415018558502, 0.8262584805488586, 0.14681334793567657, 0.1679147481918335, 0.16948221623897552, 0.19872674345970154, 0.14118675887584686, 0.10104507952928543, 1.0126523971557617, -0.09763458371162415, 0.12539251148700714, -0.33330199122428894, 0.23741337656974792, 0.09643536806106567, -0.9688340425491333, 0.33663487434387207, -0.2461542785167694, -0.051229074597358704, -0.38731348514556885, 0.04089553281664848, -0.09395765513181686, 0.0707412138581276, 0.7499411106109619, 1.606076955795288, -0.11197436600923538], [-1.2986602783203125, -0.42094576358795166, 0.09863167256116867, 0.08900578320026398, 0.08541295677423477, -0.42596039175987244, -0.07568123191595078, 0.16065193712711334, -0.0289645716547966, -0.15983092784881592, 0.1708594560623169, -0.058648064732551575, 0.134552463889122, 0.011082765646278858, -0.09434124082326889, -0.5687628388404846, -0.5212118029594421, -0.1533789485692978, -0.6365978717803955, 0.38657188415527344, -0.4957684576511383, 0.04244159907102585, 0.012114890851080418, -0.12175144255161285, 0.044858869165182114, 0.04819408804178238, 0.3364914655685425, 0.22034302353858948, -0.11405529081821442, -0.01729627698659897, 0.6536885499954224, 0.23216699063777924], [-5.496062278747559, -0.27763327956199646, -0.021360434591770172, 0.37516525387763977, 0.3583836853504181, 0.2715510427951813, -0.33385422825813293, 0.16858595609664917, 4.986093044281006, 0.11252789944410324, 0.07531050592660904, 0.5560665130615234, -0.06633061170578003, -0.08490002155303955, -0.1970938891172409, -0.038797177374362946, -1.1394083499908447, 0.041611939668655396, -1.4821878671646118, 0.1976640820503235, 0.7999987006187439, -0.15853562951087952, 0.031235121190547943, -0.34916797280311584, 0.14087019860744476, -0.24659624695777893, 0.20078007876873016, -0.17081162333488464, 0.05404585599899292, 0.10930300503969193, -1.578294038772583, -0.010137018747627735], [-0.07320383191108704, -0.0491565465927124, -0.124773308634758, 0.033213675022125244, -0.16254454851150513, -0.19109642505645752, -0.15867362916469574, -0.17959517240524292, -0.14552262425422668, 0.045203883200883865, 0.033481478691101074, -0.006886051036417484, -0.13921158015727997, 0.04525712877511978, -0.0417817085981369, -0.13620297610759735, -0.009220199659466743, -0.07800408452749252, 0.017680132761597633, -0.13556742668151855, 0.04377976059913635, -0.04573916271328926, -0.19119925796985626, -0.1389371007680893, -0.13821403682231903, 0.06018467992544174, 0.031042002141475677, -0.16821405291557312, 0.007825253531336784, 0.030845748260617256, -0.08415981382131577, -0.17006894946098328], [-0.17447040975093842, -0.0410231314599514, -0.12693949043750763, 0.014207739382982254, 0.010174557566642761, -0.04758727550506592, 0.007749989163130522, -0.09341060370206833, -0.08045554161071777, -0.1398719698190689, -0.1844121813774109, -0.03176591545343399, -0.04084465280175209, -0.2210935354232788, -0.07756653428077698, -0.1687120795249939, -0.07917985320091248, -0.03624003380537033, -0.17914125323295593, -0.08595087379217148, -0.20843210816383362, -0.05349137261509895, -0.05625195428729057, -0.052176594734191895, -0.1312936395406723, -0.10547854751348495, -0.22749097645282745, -0.054656825959682465, 0.02487885393202305, 0.008844198659062386, 0.033675212413072586, -0.017888903617858887], [-4.466369152069092, -0.0734138935804367, -0.1677170991897583, 0.17761394381523132, -0.1767946034669876, 0.12542304396629333, -0.2876834273338318, 0.12516510486602783, 0.9865288138389587, 0.24263271689414978, -0.13442005217075348, -0.3355175256729126, -0.37178653478622437, -0.13626332581043243, -0.30860504508018494, 0.07244931161403656, 0.8035562634468079, 0.34220027923583984, -0.291841983795166, 0.09909626096487045, 0.2237570732831955, -0.06934825330972672, 0.1826578974723816, 0.31196752190589905, -0.16495947539806366, 0.7704946994781494, 0.29372724890708923, -0.011203174479305744, 0.05230812728404999, 0.19644732773303986, -0.6724278330802917, 0.3698235750198364], [-0.05604276433587074, 0.025875410065054893, -0.1349090337753296, -0.016505347564816475, 0.010212362743914127, -0.1177828311920166, -0.15446333587169647, -0.18102389574050903, 0.028764912858605385, -0.023318743333220482, -0.10361934453248978, -0.060614898800849915, -0.09092289209365845, -0.08491048216819763, -0.13890667259693146, 0.05503154546022415, -0.06717503070831299, -0.08232805132865906, -0.1684083789587021, -0.09503187984228134, -0.07828675210475922, 0.04640648141503334, 0.04156288132071495, -0.1457897573709488, -0.024001644924283028, -0.13311102986335754, -0.061512015759944916, -0.047068700194358826, 0.061025120317935944, -0.0017836596816778183, 0.003191601485013962, 0.030450355261564255], [-0.0786353051662445, -0.06171485036611557, -0.05755233392119408, -0.11243978142738342, -0.2002745419740677, -0.06954741477966309, -0.04098973423242569, 0.0927322506904602, -0.10672464221715927, -0.03635125979781151, 0.0882917195558548, -0.10734106600284576, -0.08407141268253326, -0.17526422441005707, 0.027236634865403175, -0.04579548537731171, -0.23231256008148193, 0.09173239022493362, -0.14341521263122559, -0.12300795316696167, -0.07400836050510406, -0.0918675884604454, 0.06744107604026794, 0.04037050902843475, -0.04972892999649048, -0.04758735001087189, 0.08088613301515579, -0.20849505066871643, -0.19935686886310577, -0.12402847409248352, -0.03376273065805435, -0.0829273909330368]], "mlp_weights.layers.2.bias": [-0.13946622610092163, 0.058821629732847214, -0.19078239798545837, -0.17443867027759552, -0.2715758979320526, -0.12856070697307587, 0.01482385490089655, 0.21944549679756165, 0.03562701493501663, -0.08045817166566849, -0.168656125664711, -0.1053750216960907, -0.011335448361933231, -0.047304417937994, -0.04569556936621666, 0.16576790809631348, -0.22770729660987854, -0.09132850915193558, 0.13974007964134216, -0.09065229445695877, 0.009170924313366413, -0.10975711047649384, 0.15305951237678528, 0.2623929977416992, 0.3733769357204437, 0.1884271651506424, -0.050858478993177414, -0.1662338525056839, -0.020379282534122467, -0.03070995956659317, -0.06550285220146179, 0.037341680377721786], "mlp_weights.layers.4.weight": [[-0.002597059356048703, 0.24196432530879974, 0.022358421236276627, -0.02008955180644989, -0.23758801817893982, 0.013885494321584702, 0.034889716655015945, -0.16164393723011017, 0.03354762867093086, -0.05766110494732857, -0.03256705030798912, 0.06749268621206284, 0.04608125239610672, 0.06739779561758041, 0.04906586557626724, 0.04084835946559906, -0.05808296427130699, -0.0022914730943739414, 0.16811101138591766, 0.056333716958761215, -0.017730042338371277, -0.09941320866346359, -0.005248602945357561, 0.1320892721414566, 0.12504319846630096, 0.17007125914096832, 0.2088654488325119, -0.026462910696864128, -0.027262406423687935, 0.1470206379890442, -0.08015219867229462, -0.007847447879612446], [0.04040174186229706, -0.062096040695905685, -0.06619241088628769, 0.18984535336494446, 0.06463528424501419, -0.12038903683423996, 0.06682201474905014, 0.37484005093574524, -0.050653524696826935, -0.023471185937523842, -0.009954210370779037, -0.08455398678779602, 0.018999913707375526, -0.032820917665958405, -0.08695518970489502, 0.11561523377895355, 0.04137996584177017, -0.057640016078948975, -0.1272226721048355, -0.08755183964967728, 0.035909686237573624, 0.12825220823287964, -0.1764090657234192, -0.24954575300216675, -0.064753957092762, -0.16594114899635315, -0.11515526473522186, 0.03411746770143509, -0.019977467134594917, 0.32859790325164795, -0.03048175759613514, -0.1415959745645523], [-0.08663024008274078, -0.37864232063293457, 0.04496673494577408, 1.18153977394104, 0.3093869686126709, -0.01951909065246582, -0.073455810546875, -0.3257409632205963, -0.1934894472360611, -0.05430203303694725, 0.09339702129364014, -0.09537658840417862, -0.09074226021766663, -0.17275580763816833, 0.0546838752925396, -0.38281434774398804, -0.031929194927215576, 0.0187690332531929, -0.36145511269569397, -0.008383308537304401, -0.18387268483638763, -0.021817194297909737, -0.2580077052116394, -0.4715833365917206, -0.44957470893859863, -0.17710208892822266, 0.2556997537612915, -0.12618108093738556, 0.027266815304756165, -0.061876267194747925, -0.040934428572654724, -0.2326645404100418], [0.07695288956165314, -0.2657575309276581, 0.08188220858573914, -0.4379255771636963, -0.09353816509246826, -0.01576773077249527, 0.02991502359509468, 0.1664496213197708, -0.06397993862628937, -0.20144909620285034, -0.11344560980796814, -0.07688698917627335, 0.03753399848937988, -0.043956950306892395, -0.01360321044921875, 0.3161350190639496, -0.08418402075767517, -0.1950431615114212, 0.08768109977245331, -0.1956712007522583, -0.17231781780719757, 0.17099511623382568, 0.259365051984787, 0.24926425516605377, 0.28411865234375, 0.22736942768096924, -0.20915332436561584, 0.0365881510078907, 0.0410907007753849, -0.21675719320774078, -0.08881434798240662, -0.1675790697336197], [0.0679975301027298, -0.2536204755306244, -0.10419213771820068, -0.7587196230888367, 0.10026184469461441, -0.14810223877429962, -0.17504772543907166, 0.41340282559394836, 0.03158562630414963, -0.05957850068807602, -0.08906368166208267, 0.0404081828892231, -0.15444323420524597, -0.03552652895450592, -0.021777981892228127, 0.2007673978805542, -0.04316413030028343, -0.22314691543579102, -0.1453108936548233, -0.04534819722175598, -0.13845416903495789, 0.16152417659759521, -0.015378124080598354, 0.22223448753356934, 0.5072237849235535, -0.31367573142051697, -0.32335352897644043, -0.17342400550842285, -0.13547705113887787, -0.3859664499759674, -0.053660497069358826, -0.10223037004470825]], "mlp_weights.layers.4.bias": [-0.16318827867507935, 0.06408001482486725, 0.057664114981889725, 0.1411556750535965, 0.251823365688324], "mlp_abscs.layers.0.weight": [[-0.024113869294524193, -0.04292270168662071, -0.7657911777496338], [-0.05455147102475166, 0.5641340613365173, 0.0007632115739397705], [0.14189021289348602, -0.5854394435882568, 0.5561769008636475], [0.3501066267490387, 0.02614518441259861, -0.07984092831611633], [0.2576236426830292, -0.0779479518532753, -0.11026524007320404], [0.44211113452911377, 0.022853797301650047, -0.15974052250385284], [0.5668400526046753, -0.06127297505736351, -0.0013401260366663337], [0.36821216344833374, 0.31301915645599365, 0.0967320054769516], [-0.17875787615776062, -0.19646669924259186, -0.0006973148556426167], [-0.09581460058689117, 0.8179818391799927, -0.03287254273891449], [0.1831868588924408, -0.19996033608913422, 0.21697339415550232], [0.3716725707054138, 0.36868199706077576, -0.05347856879234314], [-0.6765096783638, -0.048278335481882095, 0.058177847415208817], [-1.1692532300949097, -0.007596720475703478, -0.0023189159110188484], [0.16637256741523743, 0.5560925602912903, -0.0013089091517031193], [0.30688920617103577, -0.5844265222549438, -0.4884633421897888], [0.23320803046226501, -0.6395357251167297, 0.17849518358707428], [-0.13664579391479492, 0.7235202789306641, -0.23614002764225006], [-0.008071789517998695, 0.3897607922554016, -0.07455873489379883], [-1.446439266204834, 0.16446374356746674, 0.00500877108424902], [0.42754504084587097, -0.05198933929204941, -0.7901036143302917], [-0.3790048658847809, -0.2540483772754669, 0.08968866616487503], [-0.1545916497707367, 0.6561945676803589, 0.5327978730201721], [-0.296938955783844, -0.9835144281387329, 0.4973449110984802], [-0.5890335440635681, 0.01586364023387432, 0.24263855814933777], [0.38243716955184937, 0.7503691911697388, -0.13662083446979523], [-0.26848313212394714, 0.40771713852882385, -0.6763215065002441], [0.45086562633514404, 0.0898122787475586, -0.001295343623496592], [-0.27237656712532043, -0.2547500729560852, -0.14180414378643036], [0.03447965160012245, 0.6288772821426392, -0.13419502973556519], [-0.3248552680015564, -0.31676408648490906, -0.30720624327659607], [-0.027167635038495064, -0.05467117950320244, 0.4171706736087799]], "mlp_abscs.layers.0.bias": [-0.7308498620986938, 0.4440533518791199, -0.14634086191654205, 0.4710557758808136, 0.2974811792373657, -0.12417998909950256, 0.29355132579803467, 0.733429491519928, 0.5271469950675964, 0.6005968451499939, 0.6609272956848145, -0.5968343019485474, -0.19878648221492767, -1.0401678085327148, 0.6798110604286194, -0.5130773782730103, 0.23053251206874847, 0.2942980229854584, 0.732292652130127, -1.2080837488174438, -0.39850807189941406, 0.59811931848526, 0.25157445669174194, -0.24666646122932434, 0.19474801421165466, 0.23145121335983276, -0.036202795803546906, 0.39195260405540466, 0.5592086315155029, -0.022023802623152733, -0.28658968210220337, 0.5331316590309143], "mlp_abscs.layers.2.weight": [[-1.1834853887557983, 0.39430221915245056, -0.07346207648515701, 0.08006259053945541, 0.01982754096388817, -0.006495070178061724, 0.25650858879089355, -0.03988973796367645, 0.37628233432769775, 0.2623266577720642, 0.27015453577041626, -0.5686264038085938, -0.012350467965006828, -0.06245347484946251, -0.09819110482931137, 0.181647390127182, 0.23741570115089417, 0.2721177339553833, 0.015451597049832344, 0.06715048104524612, 0.23921725153923035, 0.25313785672187805, -0.4269387423992157, 0.30450791120529175, 0.2320028841495514, -0.2753483057022095, -0.4561580717563629, 0.03050241991877556, 0.2738949656486511, 0.6243389248847961, 0.05466032028198242, 0.2541092336177826], [-0.1136651560664177, 0.06965747475624084, -0.09542597085237503, 0.008385044522583485, -0.13092298805713654, -0.08975180238485336, 0.061215318739414215, 0.06405515223741531, -0.19333350658416748, -0.11878307163715363, -0.1627507507801056, -0.02060752734541893, -0.16032125055789948, -0.000541528279427439, 0.07400908321142197, 0.015588546171784401, -0.1017247885465622, 0.03614576533436775, -0.18563665449619293, -0.13952665030956268, -0.13226361572742462, 0.003481421386823058, -0.06513512134552002, 0.04114299267530441, -0.08656597137451172, -0.19328252971172333, -0.044031042605638504, 0.07728543877601624, -0.1484624296426773, -0.2015479952096939, 0.05960225313901901, -0.02235957607626915], [-1.6791077852249146, 0.40403708815574646, -0.10920412838459015, -0.1561587005853653, -0.07056259363889694, -0.5455343127250671, -0.14510512351989746, -0.17615537345409393, 0.1974700540304184, -0.014259538613259792, 0.14970923960208893, 0.06641929596662521, 0.32402071356773376, 0.5400789976119995, -0.24033282697200775, -0.48676416277885437, 0.17368341982364655, 0.17769977450370789, -0.026579223573207855, 1.3457952737808228, 0.0622541643679142, 0.34152156114578247, -0.5665057301521301, 0.0629284530878067, 0.27724507451057434, 0.00785085465759039, -0.04558059945702553, -0.2546427845954895, 0.2466103583574295, 0.3050486147403717, -0.3650878667831421, -0.06875762343406677], [-0.030124228447675705, -0.05901973322033882, 0.056212667375802994, -0.08173951506614685, 0.02925231121480465, -0.22164547443389893, 0.04140503704547882, 0.0503840409219265, 0.039734333753585815, 0.01823316514492035, -0.083054319024086, -0.017292259261012077, 0.0012398459948599339, 0.050618067383766174, 0.04722070321440697, -0.09232558310031891, -0.12688955664634705, 0.017932461574673653, -0.05510348081588745, 0.05114921182394028, -0.2018199861049652, -0.18137127161026, -0.1827988177537918, -0.061406210064888, -0.21351012587547302, -0.08777448534965515, -0.12378410995006561, -0.19280502200126648, -0.027552256360650063, 0.019218843430280685, -0.09311649203300476, -0.14879751205444336], [1.3956668376922607, 0.5503801107406616, 0.035165078938007355, 0.1829572319984436, -0.04741516709327698, -0.009247250854969025, 0.17072385549545288, 0.17899300158023834, 0.4136720299720764, 0.15085245668888092, 0.023229632526636124, -0.03368309140205383, 0.4017869830131531, 4.273813724517822, 0.11615903675556183, -0.35769060254096985, -0.07183659076690674, 0.07462181895971298, 0.205596461892128, -1.1939677000045776, -0.01763725094497204, 0.15538765490055084, 0.25712746381759644, -0.2901315987110138, 0.30028223991394043, 0.10400694608688354, 0.17547570168972015, 0.10148999094963074, 0.1988910585641861, -0.6165453195571899, -0.16538019478321075, 0.20763809978961945], [0.8340203166007996, 0.03734327107667923, 0.07938535511493683, 0.19432969391345978, 0.12726469337940216, -0.12232474237680435, 0.24195833504199982, 0.1269756406545639, 0.08043041080236435, -0.5285759568214417, -0.10701390355825424, 0.44857800006866455, 0.38698336482048035, 3.9323790073394775, 0.18771201372146606, -0.06972809880971909, -0.15875016152858734, -0.4782312214374542, 0.37077778577804565, 0.5424377918243408, -0.010527955368161201, 0.10891970247030258, 0.5196777582168579, -0.3680579662322998, 0.19636055827140808, 0.15473215281963348, 0.7611165642738342, 0.13236139714717865, 0.37478822469711304, -0.39265453815460205, 0.10831453651189804, -0.15614356100559235], [-0.12187595665454865, -0.17907080054283142, 0.062474191188812256, -0.18234381079673767, 0.005925008561462164, -0.19354301691055298, -0.07646964490413666, -0.050786882638931274, -0.09898654371500015, -0.14764846861362457, -0.19962815940380096, -0.15540696680545807, 0.025227531790733337, -0.05049215257167816, 0.006391602568328381, 0.06277753412723541, 0.026010721921920776, 0.00995397288352251, 0.008756889961659908, 0.030552349984645844, -0.02857731468975544, -0.09972645342350006, 0.0066775246523320675, -0.17766976356506348, -0.07827670872211456, -0.07695402204990387, -0.21857059001922607, -0.14598196744918823, -0.06945181638002396, -0.02827288955450058, 0.011621888726949692, -0.06189153343439102], [-0.5023154020309448, 0.8866867423057556, -0.5633260607719421, -0.8618642687797546, -0.35260459780693054, -0.011319245211780071, -0.30130741000175476, -1.774493932723999, -0.14137746393680573, 1.2168622016906738, -0.3295688033103943, 0.21216093003749847, 0.9866180419921875, 1.3644237518310547, -1.5281295776367188, -0.6413249373435974, 0.12022975087165833, 0.22064371407032013, -1.0734163522720337, 5.413630962371826, -5.627258777618408, 0.21604883670806885, 0.08562550693750381, 0.9931539297103882, 0.4747616946697235, -1.1461715698242188, -0.15247049927711487, -1.9687905311584473, 0.15763428807258606, 0.6059872508049011, 0.40784752368927, -0.6556817293167114], [-0.1071019396185875, -0.10629883408546448, -0.06904473900794983, 0.06107884272933006, -0.19284893572330475, -0.09588078409433365, 0.018552860245108604, -0.032501909881830215, -0.1330270767211914, -0.059962499886751175, -0.17225521802902222, -0.20520226657390594, -0.08499087393283844, -0.13050894439220428, 0.013451984152197838, -0.1679542511701584, -0.1522771120071411, -0.1425672322511673, -0.12139677256345749, -0.041836805641651154, 0.05232067033648491, -0.0856873169541359, -0.0697270929813385, -0.14948733150959015, 0.011844150722026825, -0.0939096137881279, -0.018501242622733116, -0.08233122527599335, -0.05260331928730011, 0.030339647084474564, -0.02036249451339245, 0.03241182118654251], [-2.839343786239624, 0.05482463911175728, -0.2402268350124359, 0.08527069538831711, -0.10667473077774048, -0.2349379062652588, -0.12730632722377777, 0.06162086874246597, 0.3124886751174927, -0.09132463485002518, -0.020901231095194817, -0.7820954918861389, -0.14919619262218475, -2.1982293128967285, 0.04735809937119484, 0.39528512954711914, -0.20665821433067322, 0.4029655158519745, -0.06410524249076843, 0.5421461462974548, -0.032600805163383484, 0.1473986804485321, -0.5934377312660217, 0.1704738736152649, 0.0077026598155498505, 0.25479406118392944, -0.5528727769851685, 0.13672661781311035, 0.11749949306249619, 0.4339703917503357, 0.15125589072704315, 0.2508736252784729], [-0.030512653291225433, -0.1296774297952652, 0.007189271040260792, 0.08030428737401962, -0.1728353500366211, 0.0732884556055069, -0.08278528600931168, -0.1480545997619629, -0.13730135560035706, -0.04512045159935951, -0.05702813342213631, -0.07825608551502228, 0.13525137305259705, 0.018825113773345947, -0.0883147194981575, -0.009978661313652992, -0.1069541871547699, -0.03550872206687927, -0.01847420074045658, 0.04329508915543556, -0.00627309363335371, -0.03725704178214073, 0.1434822380542755, -0.08691011369228363, -0.04309875890612602, 0.025143474340438843, -0.0471210740506649, -0.035798437893390656, -0.05687137693166733, -0.02020738460123539, 0.029361844062805176, -0.09417185187339783], [0.5862783789634705, 0.5649667978286743, -0.07292985171079636, 0.07361691445112228, 0.16585402190685272, -0.09481043368577957, -0.031227078288793564, 0.08600383996963501, 0.39662960171699524, 0.17328646779060364, 0.09293863922357559, -0.2797272503376007, 0.30413469672203064, 3.273066759109497, -0.03449174389243126, 0.017150405794382095, 0.21721816062927246, -0.08501181751489639, 0.14215147495269775, -0.6999218463897705, -0.11936591565608978, 0.40784066915512085, -0.07433012127876282, -0.32283055782318115, 0.1805410236120224, -0.2709328532218933, 0.06523820012807846, 0.046587347984313965, 0.1516808569431305, -0.5115103125572205, -0.25444191694259644, 0.12812955677509308], [-2.3180062770843506, 0.19178466498851776, -0.14641952514648438, 0.16126234829425812, -0.0035453501623123884, -0.1859624981880188, 0.06759297102689743, -0.056033432483673096, 0.20644105970859528, 0.0041335164569318295, 0.07637674361467361, -0.5874527096748352, 0.04121948406100273, -1.505143404006958, 0.01618432067334652, 0.2486899197101593, 0.21335269510746002, 0.3705112040042877, 0.11682099103927612, 1.0010160207748413, 0.002612252254039049, 0.01630721054971218, -0.8268752694129944, 0.36566615104675293, -0.09526214003562927, 0.02828657254576683, -0.5691561698913574, 0.10801500827074051, 0.3199557960033417, 0.5201156139373779, -0.0008319519693031907, 0.32851889729499817], [-0.0058569828979671, -0.08094766736030579, -0.013505278155207634, 0.03242406249046326, -0.19430436193943024, 0.008772647939622402, -0.057267434895038605, -0.0634455680847168, -0.09618929028511047, -0.034327369183301926, -0.04633933678269386, -0.07967709004878998, 0.05470232665538788, -0.06103663891553879, -0.18677298724651337, 0.07207807898521423, -0.09985524415969849, -0.008973782882094383, -0.09688512980937958, -0.09273389726877213, 0.022948844358325005, 0.07510081678628922, -0.1604277491569519, -0.1166267916560173, -0.023038553074002266, -0.0053237080574035645, 0.07467788457870483, -0.054387789219617844, -0.09346453845500946, 0.05215677618980408, -0.17777103185653687, -0.1272531896829605], [-0.057084254920482635, -0.21830956637859344, -0.10853423923254013, -0.062205977737903595, -0.1259951889514923, -0.06821413338184357, -0.08949130028486252, 0.04834997281432152, 0.03126304969191551, -0.08032144606113434, -0.20154635608196259, -0.21889027953147888, -0.036291301250457764, -0.038978394120931625, -0.03204907849431038, -0.0882471352815628, -0.08229827880859375, -0.07183729857206345, -0.10844317823648453, -0.1661655306816101, 0.05875688046216965, -0.09300780296325684, -0.039689306169748306, 0.04102586954832077, -0.010360718704760075, -0.07036386430263519, -0.03543267026543617, -0.1125568151473999, 0.012041141279041767, -0.020572060719132423, -0.1971721202135086, 0.054691608995199203], [-0.08314885944128036, 0.020419079810380936, 0.022306054830551147, -0.10549557954072952, -0.014185949228703976, -0.10346236824989319, -0.030961809679865837, -0.0031580431386828423, -0.120611272752285, -0.15082718431949615, -0.1332201063632965, -0.18002508580684662, -0.06562142074108124, -0.06292346864938736, 0.051291659474372864, -0.08423814922571182, -0.12851516902446747, -0.06251315772533417, 0.010797586292028427, -0.10780846327543259, -0.17423856258392334, -0.1291595995426178, 0.08323132246732712, -0.13750490546226501, -0.06483906507492065, 0.08437696844339371, -0.09661580622196198, -0.07076453417539597, -0.19209201633930206, 0.0802045613527298, -0.09449723362922668, -0.14666838943958282], [-0.6399387717247009, 0.23391026258468628, 0.13931025564670563, 0.16061870753765106, 0.15375100076198578, 0.027415698394179344, 0.2084357887506485, 0.23052825033664703, 0.30710160732269287, 0.2503323554992676, 0.31549784541130066, -0.30355677008628845, 0.2107551544904709, 1.285671591758728, 0.16354991495609283, 0.06116979196667671, 0.2943107783794403, 0.1829076111316681, 0.10195490717887878, -0.7533618211746216, 0.1549639105796814, 0.38209861516952515, -0.1847921758890152, 0.2411951869726181, 0.20475606620311737, -0.12217461317777634, -0.07429748773574829, 0.10140636563301086, 0.16782055795192719, 0.02302694134414196, 0.07211757451295853, 0.37088286876678467], [-0.1563861072063446, -0.16580092906951904, -0.0714617446064949, -0.027934838086366653, 0.03848480060696602, -0.10387781262397766, -0.1856996715068817, 0.05010942369699478, -0.16438673436641693, -0.08150240033864975, -0.1171472817659378, -0.13683179020881653, -0.17676942050457, -0.07118070870637894, 0.02914116159081459, 0.039592161774635315, -0.06627658009529114, 0.05617690458893776, 0.05764758586883545, 0.06335043162107468, -0.1792851835489273, -0.011798988096415997, -0.13912886381149292, -0.11677176505327225, -0.08683142066001892, -0.19190968573093414, -0.13298019766807556, -0.12607647478580475, -0.16819441318511963, -0.14135558903217316, 0.008829657919704914, 0.01842452399432659], [-0.1810508370399475, -0.020625583827495575, -0.09718043357133865, 0.022261103615164757, -0.030921973288059235, -0.16251400113105774, -0.13403552770614624, -0.11991430073976517, -0.0014575714012607932, 0.03569519892334938, -0.016372663900256157, -0.12780597805976868, 0.06898374855518341, 0.007663636934012175, -0.09631345421075821, 0.015653803944587708, -0.1715840846300125, -0.10820068418979645, -0.007658741436898708, -0.07656534761190414, 0.03356381505727768, -0.0586487241089344, -0.05482406169176102, -0.18104268610477448, -0.13628624379634857, -0.2254466414451599, -0.0549803301692009, -0.20207515358924866, -0.20347610116004944, -0.0653148889541626, -0.0740971714258194, -0.01653335988521576], [0.40467357635498047, 0.4876609444618225, -0.3536450266838074, -0.5477548241615295, -0.6096182465553284, -0.10550948977470398, 1.7265889644622803, -0.7368276119232178, -0.043680377304553986, 0.4082915484905243, -0.196561798453331, 0.2498958855867386, 0.7583513259887695, 4.594170570373535, -0.31374266743659973, -2.2371490001678467, -0.05282485857605934, 0.34564128518104553, -0.30385440587997437, 0.7216184139251709, 0.20582075417041779, 0.2892478108406067, -0.031015047803521156, 0.537856936454773, 0.3157426416873932, -0.4336874485015869, -0.037333063781261444, 0.42038676142692566, 0.08162546902894974, -0.19674570858478546, 0.013822250999510288, -0.3667876124382019], [-0.6712950468063354, 0.28399035334587097, 0.010311814956367016, 0.0240254495292902, 0.1313832849264145, -0.027191100642085075, 0.08563551306724548, 0.15822654962539673, 0.3476215898990631, 0.01329079270362854, 0.19628477096557617, -0.25824618339538574, 0.321804940700531, 1.6578009128570557, 0.17762763798236847, 0.10397937893867493, 0.07960201799869537, -0.05820664390921593, 0.10964477062225342, 0.6675789952278137, 0.1166311725974083, 0.37572959065437317, -0.15522876381874084, 0.09512346982955933, 0.019882807508111, -0.0901651680469513, 0.0973743423819542, 0.17042206227779388, 0.218572199344635, 0.21300584077835083, 0.010513430461287498, 0.06165340542793274], [-1.2448464632034302, 0.1863848716020584, -0.09425303339958191, 0.17478902637958527, 0.009835423901677132, 0.007820135913789272, 0.11468847841024399, 0.19333511590957642, 0.46645447611808777, 0.34677854180336, 0.22371788322925568, -0.4466848075389862, 0.0783037468791008, -0.09035935997962952, -0.06041273847222328, 0.29734620451927185, 0.3449454605579376, 0.278786301612854, 0.08963801711797714, 0.113860122859478, 0.0998799055814743, 0.29564476013183594, -0.3327624797821045, 0.22508715093135834, -0.034229665994644165, 0.009498648345470428, -0.29921796917915344, 0.06368101388216019, 0.2943391501903534, 0.6414405107498169, -0.004150673747062683, 0.25701355934143066], [-0.0357796810567379, -0.19163361191749573, 0.0022179267834872007, -0.0665726512670517, -0.09230931848287582, -0.04165459796786308, -0.05211549252271652, -0.11312287300825119, -0.03649313375353813, -0.19298125803470612, 0.020865635946393013, -0.10562383383512497, -0.1673881560564041, -0.1886802613735199, -0.0583433136343956, -0.08391636610031128, -0.041520554572343826, 0.019966095685958862, -0.1076444685459137, -0.0822540819644928, -0.18158455193042755, 0.018239837139844894, 0.005723016802221537, -0.11971208453178406, -0.055351581424474716, -0.0057266768999397755, -0.09528439491987228, -0.11735556274652481, -0.15250156819820404, -0.09049233794212341, -0.13567864894866943, -0.19095493853092194], [0.12635530531406403, 0.008168978616595268, 0.0034321327693760395, -0.07359408587217331, -0.060887373983860016, 0.12303819507360458, -0.16973146796226501, 0.06012459844350815, -0.17099113762378693, -0.08061681687831879, 0.02051042579114437, -0.13510702550411224, 0.06989788264036179, 0.06392554193735123, -0.11101535707712173, 0.13964487612247467, -0.13954587280750275, -0.09219193458557129, 0.053397879004478455, 0.05257129296660423, -0.14825062453746796, -0.1587548404932022, -0.036204054951667786, 0.06106577068567276, -0.16860175132751465, -0.13878412544727325, -0.056429848074913025, -0.06658831238746643, -0.05860710144042969, 0.08889595419168472, 0.1363278329372406, -0.05633595958352089], [0.9395594000816345, 0.24199461936950684, 0.1373770385980606, 0.06916314363479614, -0.05396317318081856, -0.18093012273311615, 0.13956287503242493, 0.18787769973278046, 0.16036808490753174, -0.6028211712837219, 0.08542880415916443, 0.23170597851276398, 0.47456109523773193, 4.00308895111084, 0.2911970317363739, -0.19578571617603302, -0.23596727848052979, -0.4976694583892822, 0.528192937374115, -0.36533138155937195, -0.14111831784248352, 0.1828908771276474, 0.3553096055984497, -0.2282833755016327, 0.18156981468200684, 0.2567908763885498, 0.4875410795211792, 0.028676826506853104, 0.2754879295825958, -0.7644984722137451, -0.3343760073184967, 0.053713228553533554], [-0.4917518198490143, 0.41477933526039124, -0.17228713631629944, 0.0745294839143753, 0.0593252070248127, 0.006427120417356491, 0.05938267707824707, -0.00023736666480544955, 0.35256731510162354, 0.6809114217758179, 0.32766568660736084, -0.4029166102409363, 0.21175166964530945, 1.0282926559448242, -0.18100647628307343, 0.24665594100952148, 0.3390260636806488, 0.2607496678829193, -0.15883362293243408, -0.06473247706890106, 0.06450555473566055, 0.2816564738750458, -0.36471036076545715, 0.08506864309310913, 0.16305364668369293, -0.3891289234161377, -0.23035378754138947, -0.043205056339502335, 0.2693887948989868, 0.39112162590026855, -0.22112847864627838, 0.3772231638431549], [0.4499343931674957, 0.4847056269645691, -0.13210991024971008, 0.027232710272073746, 0.18668928742408752, 0.038390517234802246, 0.12860144674777985, 0.22845475375652313, 0.2026098221540451, 0.2840576171875, 0.16221970319747925, -0.061213959008455276, 0.26853054761886597, 2.885657787322998, 0.15839248895645142, 0.01579015515744686, 0.21932348608970642, -0.054575107991695404, 0.2440735399723053, 0.2735496759414673, -0.01751273311674595, 0.19335144758224487, -0.10128670930862427, -0.014785869978368282, 0.2901356816291809, -0.24214781820774078, 0.18386776745319366, -0.008963474072515965, 0.19136439263820648, -0.03645274415612221, -0.10859118402004242, 0.23062480986118317], [-3.4341413974761963, 0.22366201877593994, -0.14907127618789673, 0.23331056535243988, 0.033430907875299454, -0.17197716236114502, 0.0801861435174942, 0.2770337164402008, 0.3023126721382141, -0.254305899143219, 0.0322965607047081, -0.16981688141822815, 0.07478124648332596, -0.08650892227888107, 0.09332093596458435, -0.05294013395905495, 0.14292457699775696, -0.11156082153320312, 0.37368085980415344, 0.5497575402259827, 0.07112911343574524, 0.2773738205432892, -0.22220878303050995, 0.2294611632823944, -0.1250319927930832, 0.13397745788097382, -0.07195141166448593, 0.07285493612289429, 0.3665991425514221, 0.2724962532520294, -0.19602039456367493, 0.28684014081954956], [0.0029529216699302197, -0.012712551280856133, 0.01671733893454075, 0.05747731029987335, -0.20638208091259003, -0.010599542409181595, -0.06714595854282379, -0.045391857624053955, 0.0034602328669279814, -0.0838426873087883, 0.06472843140363693, -0.012387258931994438, 0.07142011821269989, -0.15284113585948944, -0.20525282621383667, -0.07350454479455948, -0.014626081101596355, -0.07341878861188889, -0.16415733098983765, -0.07966483384370804, 0.032547205686569214, -0.20026247203350067, -0.14829735457897186, 0.004142310936003923, -0.16660764813423157, 0.03748919442296028, -0.05398594215512276, -0.04700643941760063, 0.06648179888725281, 0.09569802135229111, -0.10397917032241821, 0.028810925781726837], [1.2399823665618896, 0.25370749831199646, -0.04587966203689575, 0.15143680572509766, -0.10096475481987, -0.07171490043401718, 0.12204818427562714, 0.03268701583147049, 0.31955474615097046, -0.0677279531955719, 0.15589822828769684, 0.16329334676265717, 0.23383113741874695, 4.14853572845459, 0.1185089573264122, -0.17240512371063232, 0.014810229651629925, 0.006101998500525951, 0.32148313522338867, -0.28886398673057556, -0.14462733268737793, 0.23817552626132965, 0.09576261043548584, -0.36694222688674927, 0.25473207235336304, 0.0500982291996479, 0.19494862854480743, 0.0585041306912899, 0.3454141318798065, -0.31613487005233765, 0.002743267687037587, 0.07885565608739853], [0.6722415089607239, 0.3752842843532562, 0.1078963428735733, 0.11834221333265305, 0.020572099834680557, -0.027354516088962555, 0.24447603523731232, 0.23330293595790863, 0.4464176297187805, 0.2711848318576813, 0.033414918929338455, 0.022510340437293053, 0.22615987062454224, 3.090819835662842, 0.04168662056326866, 0.07990408688783646, 0.09445914626121521, 0.23263271152973175, 0.09628808498382568, -0.9282000660896301, -0.0023456395138055086, 0.2973690927028656, 0.19406986236572266, -0.2072243094444275, 0.14741364121437073, -0.06738217175006866, 0.0341942124068737, 0.1925525814294815, 0.22571979463100433, -0.11549006402492523, -0.02632293663918972, 0.2810845971107483], [0.012644918635487556, 0.08441880345344543, -0.11269809305667877, -0.16545607149600983, 0.08404094725847244, 0.009669744409620762, -0.12368264049291611, -0.16000162065029144, -0.0070706140249967575, -0.06254412978887558, -0.15339353680610657, -0.024244332686066628, -0.16173392534255981, -0.1345899999141693, 0.0009359235991723835, 0.05870016664266586, 0.059349581599235535, -0.09670550376176834, 0.008756434544920921, 0.06214480102062225, -0.19072145223617554, -0.1312185525894165, -0.1320994794368744, -0.1563470959663391, -0.15819308161735535, -0.04639577493071556, -0.08719980716705322, -0.1835666298866272, 0.022554783150553703, -0.08261426538228989, -0.09021495282649994, -0.06422628462314606]], "mlp_abscs.layers.2.bias": [0.36137160658836365, -0.11548922955989838, 0.20257435739040375, -0.046703532338142395, 0.29577401280403137, 0.20783722400665283, -0.029353229328989983, -0.45441126823425293, -0.00876416452229023, 0.3184153735637665, -0.07385601848363876, 0.22992956638336182, 0.332602322101593, -0.07570818066596985, -0.014739486388862133, -0.18937420845031738, 0.314368337392807, -0.023041000589728355, -0.034877341240644455, -0.05941968411207199, 0.17893452942371368, 0.3135080337524414, 0.01604023575782776, -0.1666945070028305, 0.24020794034004211, 0.27460259199142456, 0.2572515904903412, 0.41234686970710754, -0.20297254621982574, 0.17733000218868256, 0.2576453387737274, -0.10382809489965439], "mlp_abscs.layers.4.weight": [[-0.29415836930274963, -0.04622355103492737, -0.11402126401662827, -0.18567818403244019, -0.12900030612945557, 0.33432167768478394, 0.051962800323963165, -4.411744594573975, -0.08545714616775513, 0.04625618830323219, -0.08442290872335434, -0.29472604393959045, -0.03111094795167446, -0.14028196036815643, 0.035800784826278687, 0.010126844979822636, -0.22838090360164642, -0.0911337286233902, -0.14906607568264008, -0.7148683667182922, 0.010278867557644844, -0.18575920164585114, 0.0030449400655925274, -0.05359626188874245, 0.24659404158592224, -0.4425404965877533, -0.11221630126237869, 0.09959077835083008, -0.034513287246227264, 0.00017096439842134714, -0.19552050530910492, 0.02402600646018982], [-0.48100343346595764, -0.1296054869890213, -0.448650985956192, -0.07728144526481628, 0.42325350642204285, 0.6214230060577393, -0.16157416999340057, -0.9911133646965027, 0.02345382794737816, -0.5215811729431152, 0.004227152559906244, 0.27285268902778625, -0.4637499153614044, -0.00010776473936857656, -0.06630796939134598, 0.05158253386616707, -0.14273159205913544, -0.035522475838661194, -0.017046205699443817, -0.2504636347293854, -0.009000863879919052, -0.43159380555152893, -0.037213023751974106, 0.00043548541725613177, 0.6972234845161438, -0.2912578582763672, 0.16532371938228607, -0.1530349850654602, -0.07687126100063324, 0.44644272327423096, 0.16875702142715454, 0.009954197332262993], [-0.2528286576271057, -0.03543923422694206, -0.15468940138816833, 0.02426067739725113, -0.3251740634441376, -0.2718028128147125, 0.007285333704203367, -0.8299310207366943, 0.06819991767406464, -0.2662442624568939, -0.0006698633078485727, -0.25956815481185913, -0.2814285159111023, 0.0028232261538505554, -0.01750737428665161, 0.07299558073282242, -0.3527723550796509, -0.070411816239357, 0.043784014880657196, -1.5152589082717896, -0.24308066070079803, -0.32925447821617126, -0.10948999971151352, 0.07929646968841553, -0.42447689175605774, -0.07671348005533218, -0.23386555910110474, -0.42270687222480774, 0.047180868685245514, -0.34484830498695374, -0.29362645745277405, -0.05466166138648987], [-0.2604990303516388, 0.03820696845650673, -0.40182650089263916, -0.032869089394807816, -0.14650243520736694, -0.18455611169338226, -0.08891494572162628, -3.615292549133301, -0.11500155925750732, 0.05538563057780266, -0.06437430530786514, -0.2460469752550125, -0.007258041761815548, -0.0345882810652256, -0.1552477478981018, -0.0005519511178135872, -0.17531664669513702, -0.018884478136897087, 0.05938458815217018, -1.639024257659912, -0.218065083026886, -0.21135170757770538, -0.013255083933472633, 0.013939669355750084, -0.07744922488927841, -0.3659174144268036, -0.3008018434047699, -0.03472844883799553, -0.10674510896205902, -0.227020263671875, -0.241155743598938, 0.049760665744543076]], "mlp_abscs.layers.4.bias": [-0.04932721331715584, 0.01849380135536194, -0.43381068110466003, -0.2361953854560852]}